21 21
L 0.53790426 -0.22906393 -0.4431763 -0.24348854 0.3042629 -0.14492445 0.023226788 -1.6209316 0.561944 0.78001165 -1.0254483 -0.4776149 -0.26147613 0.73356134 1.7482339 0.52610034 0.69119793 -0.3911695 -0.44910932 -0.1557782 -0.24085303
S -0.12735295 0.3354329 -0.54774946 -0.313122 -0.11174722 0.5966818 -0.17722984 0.18687232 -0.33346394 0.815894 0.52660155 0.18165934 -0.27648005 -0.40280756 0.24009062 0.0013974457 0.052148208 -0.14320493 0.70279634 0.06868325 -0.33072254
V 0.54660565 -0.5009021 0.09289259 -0.3348112 0.35506362 -0.22537227 0.65958893 -1.5595506 0.6306582 0.6491459 -0.9592391 -0.40044212 0.098164804 0.419734 1.8280134 0.43432936 0.8893314 -0.45090517 -0.8749935 0.32047644 0.7088486
I 1.0746123 -0.7030326 -0.67346466 -0.1680685 -0.14401399 -0.60035 0.45364293 -1.086867 0.8446563 0.17076337 -2.0692887 -0.72012466 -0.036904395 0.6143457 0.65323496 0.93717957 1.6492565 -0.8688992 -1.5867339 0.011041411 0.86910665
A -0.41090053 -0.26707307 0.26661563 -0.6049045 0.6524492 0.6134789 -0.21883616 -1.5935962 0.57225686 0.38151625 -0.10837259 0.18930161 -0.32178205 -0.113374 2.399161 -0.010829822 0.29498133 0.09160918 0.3819002 -0.05165372 -0.424399
T 0.039417744 0.062437095 -0.46075734 -0.32402974 0.017551748 0.24804012 0.27048376 -0.18187623 0.072324455 0.33151722 -0.32095852 0.018171243 -0.14614806 -0.2825193 0.558353 0.13068274 0.41593716 -0.03230866 -0.056025982 0.2607326 0.2740408
F 1.0282705 -0.22941345 -0.55140674 -0.07240112 0.0868255 -0.94519985 0.30517134 -1.470633 0.7220582 0.2576877 -1.83352 -1.2558483 -0.23759153 1.148965 0.38684404 0.58545107 1.2408363 -0.6257854 -0.9048416 0.04737689 0.9494912
G -1.3418868 0.56475186 0.9039148 -0.9018579 -0.33071068 0.7880373 -0.31538725 0.12296964 0.047622398 0.05878948 0.48794165 -0.2250646 -0.338606 -0.8624261 0.9812047 -0.14501728 -0.21645328 0.17682573 1.4549717 -0.054648012 -0.4839663
R -1.0511657 -0.67121285 0.64107376 -0.0052322946 0.8566185 1.2701354 -1.1169629 -0.7848873 -0.3247409 0.12510456 0.7375533 0.73220617 -0.4187697 -0.72054017 1.5196993 0.7944084 -0.2954824 -0.68757397 0.9242315 0.164474 -0.60374033
P -1.6573617 0.6587891 0.8771483 -0.44784132 -0.25907037 0.54536724 -0.78805095 0.37964422 -0.34095937 0.16136761 0.66670036 -0.102920815 -0.85831594 -0.91146886 0.48949906 -0.3873631 -0.5134713 -0.0673897 1.7484602 -0.6087015 -0.681473
N 0.003085171 0.18799908 -1.2463433 -0.53339714 -0.075266905 -0.7290372 0.19404973 1.1018096 0.053397346 -0.29624715 -0.7302863 -0.61465263 -0.4698305 0.36547297 -1.1098708 -0.040089414 0.29644987 0.30794144 -0.6464192 0.3915044 0.71954846
K 0.09654707 -0.43566927 -0.40138888 0.14647026 0.011806898 0.21334657 0.18545775 1.026675 -0.46949813 -0.61615473 -0.6813025 0.20639484 0.22576182 -0.6117593 -0.5449846 0.962072 -0.12689467 -0.903156 -0.24831069 1.4498618 0.7944965
E -2.047535 0.36483383 0.584699 -0.45479777 -0.57301897 0.3127557 -0.5800784 2.5497327 -1.1453654 -0.80316585 1.4754069 0.07964368 -0.7265352 -1.3651166 -1.4579366 -0.82370436 -1.0469787 0.5398144 1.3003306 1.4936612 0.14874175
Y 0.48119822 -0.32492176 -0.37026417 -0.28302148 0.5377527 -0.86264765 0.3421463 -0.6565084 0.43635124 0.70808256 -1.2580577 -0.81917554 0.004786864 0.83915406 -0.091444224 0.61249375 1.1513878 -0.26133594 -1.7751908 -0.6636727 1.1475894
D -0.92665005 0.43760774 0.11105233 -0.24017327 -0.090873 0.35442686 -0.556429 0.8930703 -0.3743668 -0.09565808 0.58307993 -0.42492735 -0.76602954 -0.76984257 -1.3496125 -1.091828 0.25219023 0.43822038 0.37564743 0.10148378 0.5148833
C -0.0621664 0.2367519 0.73904455 -0.31322074 0.31029752 -0.70792186 -0.6723187 -0.5710327 0.30837333 0.62918293 -0.98263204 -0.8956509 -0.44932574 0.9428689 -0.05765731 0.54740936 0.51732355 -0.46446303 -0.057178598 -0.5549981 0.48392105
Q -0.74657077 0.51677775 0.6762367 0.053731665 -0.07293949 1.2207704 -0.33656192 1.1790476 -0.7317681 0.014778061 0.10703463 0.5105441 -0.92524105 -0.78794175 -0.18022896 -0.11532225 -0.89701384 0.13359077 1.0131865 1.1343915 -0.82900083
M 0.8290931 -0.50836366 -0.6765132 0.048649427 0.2579444 -0.5036598 0.30537772 -0.9009454 0.6979445 0.69503075 -0.84589696 -0.6785582 -0.34299812 0.65225714 0.3071816 0.48257026 0.9191901 -0.2080438 -0.9989691 0.5508475 0.92034245
H 0.37061188 0.2537009 -0.19537404 0.25266194 0.621764 0.38898578 -0.572206 -0.5203473 -0.37142643 0.7390137 -0.46367294 -0.22767383 -0.5414317 0.7154256 0.441732 0.6995211 -0.21154289 -0.22910006 0.35440898 0.046070095 -0.6789302
W 0.1529464 -0.21913669 0.8829023 -0.9315392 0.08301036 -0.30396172 -0.1767877 -1.0289797 1.2024827 0.91566765 -1.199367 -0.6356189 -0.10918649 0.6254116 1.154346 0.66910547 0.97074586 -0.27793175 -0.38959426 -0.51428205 0.30168152
X 1.23063 -0.90732557 0.78401923 0.48043305 0.5265812 1.5365549 1.7244393 -2.848811 -1.1414756 -1.5288934 0.5720196 -4.775787 -0.89538974 -0.19011869 1.3800094 -2.2908282 -2.314506 -2.5820475 1.6841707 -1.6582774 1.432379
